<Nnet> 
<Splice> 560 560
[ 0 ]
<AddShift> 560 560 
<LearnRateCoef> 0 [ -8.311879 -8.600912 -9.615928 -10.43595 -11.21292 -11.88333 -12.36243 -12.63706 -12.8818 -12.83066 -12.89103 -12.95666 -13.19763 -13.40598 -13.49113 -13.5546 -13.55639 -13.51915 -13.68284 -13.53289 -13.42107 -13.65519 -13.50713 -13.75251 -13.76715 -13.87408 -13.73109 -13.70412 -13.56073 -13.53488 -13.54895 -13.56228 -13.59408 -13.62047 -13.64198 -13.66109 -13.62669 -13.58297 -13.57387 -13.4739 -13.53063 -13.48348 -13.61047 -13.64716 -13.71546 -13.79184 -13.90614 -14.03098 -14.18205 -14.35881 -14.48419 -14.60172 -14.70591 -14.83362 -14.92122 -15.00622 -15.05122 -15.03119 -14.99028 -14.92302 -14.86927 -14.82691 -14.7972 -14.76909 -14.71356 -14.61277 -14.51696 -14.42252 -14.36405 -14.30451 -14.23161 -14.19851 -14.16633 -14.15649 -14.10504 -13.99518 -13.79562 -13.3996 -12.7767 -11.71208 -8.311879 -8.600912 -9.615928 -10.43595 -11.21292 -11.88333 -12.36243 -12.63706 -12.8818 -12.83066 -12.89103 -12.95666 -13.19763 -13.40598 -13.49113 -13.5546 -13.55639 -13.51915 -13.68284 -13.53289 -13.42107 -13.65519 -13.50713 -13.75251 -13.76715 -13.87408 -13.73109 -13.70412 -13.56073 -13.53488 -13.54895 -13.56228 -13.59408 -13.62047 -13.64198 -13.66109 -13.62669 -13.58297 -13.57387 -13.4739 -13.53063 -13.48348 -13.61047 -13.64716 -13.71546 -13.79184 -13.90614 -14.03098 -14.18205 -14.35881 -14.48419 -14.60172 -14.70591 -14.83362 -14.92122 -15.00622 -15.05122 -15.03119 -14.99028 -14.92302 -14.86927 -14.82691 -14.7972 -14.76909 -14.71356 -14.61277 -14.51696 -14.42252 -14.36405 -14.30451 -14.23161 -14.19851 -14.16633 -14.15649 -14.10504 -13.99518 -13.79562 -13.3996 -12.7767 -11.71208 -8.311879 -8.600912 -9.615928 -10.43595 -11.21292 -11.88333 -12.36243 -12.63706 -12.8818 -12.83066 -12.89103 -12.95666 -13.19763 -13.40598 -13.49113 -13.5546 -13.55639 -13.51915 -13.68284 -13.53289 -13.42107 -13.65519 -13.50713 -13.75251 -13.76715 -13.87408 -13.73109 -13.70412 -13.56073 -13.53488 -13.54895 -13.56228 -13.59408 -13.62047 -13.64198 -13.66109 -13.62669 -13.58297 -13.57387 -13.4739 -13.53063 -13.48348 -13.61047 -13.64716 -13.71546 -13.79184 -13.90614 -14.03098 -14.18205 -14.35881 -14.48419 -14.60172 -14.70591 -14.83362 -14.92122 -15.00622 -15.05122 -15.03119 -14.99028 -14.92302 -14.86927 -14.82691 -14.7972 -14.76909 -14.71356 -14.61277 -14.51696 -14.42252 -14.36405 -14.30451 -14.23161 -14.19851 -14.16633 -14.15649 -14.10504 -13.99518 -13.79562 -13.3996 -12.7767 -11.71208 -8.311879 -8.600912 -9.615928 -10.43595 -11.21292 -11.88333 -12.36243 -12.63706 -12.8818 -12.83066 -12.89103 -12.95666 -13.19763 -13.40598 -13.49113 -13.5546 -13.55639 -13.51915 -13.68284 -13.53289 -13.42107 -13.65519 -13.50713 -13.75251 -13.76715 -13.87408 -13.73109 -13.70412 -13.56073 -13.53488 -13.54895 -13.56228 -13.59408 -13.62047 -13.64198 -13.66109 -13.62669 -13.58297 -13.57387 -13.4739 -13.53063 -13.48348 -13.61047 -13.64716 -13.71546 -13.79184 -13.90614 -14.03098 -14.18205 -14.35881 -14.48419 -14.60172 -14.70591 -14.83362 -14.92122 -15.00622 -15.05122 -15.03119 -14.99028 -14.92302 -14.86927 -14.82691 -14.7972 -14.76909 -14.71356 -14.61277 -14.51696 -14.42252 -14.36405 -14.30451 -14.23161 -14.19851 -14.16633 -14.15649 -14.10504 -13.99518 -13.79562 -13.3996 -12.7767 -11.71208 -8.311879 -8.600912 -9.615928 -10.43595 -11.21292 -11.88333 -12.36243 -12.63706 -12.8818 -12.83066 -12.89103 -12.95666 -13.19763 -13.40598 -13.49113 -13.5546 -13.55639 -13.51915 -13.68284 -13.53289 -13.42107 -13.65519 -13.50713 -13.75251 -13.76715 -13.87408 -13.73109 -13.70412 -13.56073 -13.53488 -13.54895 -13.56228 -13.59408 -13.62047 -13.64198 -13.66109 -13.62669 -13.58297 -13.57387 -13.4739 -13.53063 -13.48348 -13.61047 -13.64716 -13.71546 -13.79184 -13.90614 -14.03098 -14.18205 -14.35881 -14.48419 -14.60172 -14.70591 -14.83362 -14.92122 -15.00622 -15.05122 -15.03119 -14.99028 -14.92302 -14.86927 -14.82691 -14.7972 -14.76909 -14.71356 -14.61277 -14.51696 -14.42252 -14.36405 -14.30451 -14.23161 -14.19851 -14.16633 -14.15649 -14.10504 -13.99518 -13.79562 -13.3996 -12.7767 -11.71208 -8.311879 -8.600912 -9.615928 -10.43595 -11.21292 -11.88333 -12.36243 -12.63706 -12.8818 -12.83066 -12.89103 -12.95666 -13.19763 -13.40598 -13.49113 -13.5546 -13.55639 -13.51915 -13.68284 -13.53289 -13.42107 -13.65519 -13.50713 -13.75251 -13.76715 -13.87408 -13.73109 -13.70412 -13.56073 -13.53488 -13.54895 -13.56228 -13.59408 -13.62047 -13.64198 -13.66109 -13.62669 -13.58297 -13.57387 -13.4739 -13.53063 -13.48348 -13.61047 -13.64716 -13.71546 -13.79184 -13.90614 -14.03098 -14.18205 -14.35881 -14.48419 -14.60172 -14.70591 -14.83362 -14.92122 -15.00622 -15.05122 -15.03119 -14.99028 -14.92302 -14.86927 -14.82691 -14.7972 -14.76909 -14.71356 -14.61277 -14.51696 -14.42252 -14.36405 -14.30451 -14.23161 -14.19851 -14.16633 -14.15649 -14.10504 -13.99518 -13.79562 -13.3996 -12.7767 -11.71208 -8.311879 -8.600912 -9.615928 -10.43595 -11.21292 -11.88333 -12.36243 -12.63706 -12.8818 -12.83066 -12.89103 -12.95666 -13.19763 -13.40598 -13.49113 -13.5546 -13.55639 -13.51915 -13.68284 -13.53289 -13.42107 -13.65519 -13.50713 -13.75251 -13.76715 -13.87408 -13.73109 -13.70412 -13.56073 -13.53488 -13.54895 -13.56228 -13.59408 -13.62047 -13.64198 -13.66109 -13.62669 -13.58297 -13.57387 -13.4739 -13.53063 -13.48348 -13.61047 -13.64716 -13.71546 -13.79184 -13.90614 -14.03098 -14.18205 -14.35881 -14.48419 -14.60172 -14.70591 -14.83362 -14.92122 -15.00622 -15.05122 -15.03119 -14.99028 -14.92302 -14.86927 -14.82691 -14.7972 -14.76909 -14.71356 -14.61277 -14.51696 -14.42252 -14.36405 -14.30451 -14.23161 -14.19851 -14.16633 -14.15649 -14.10504 -13.99518 -13.79562 -13.3996 -12.7767 -11.71208 ]
<Rescale> 560 560
<LearnRateCoef> 0 [ 0.155775 0.154484 0.1527379 0.1518718 0.1506028 0.1489256 0.147067 0.1447061 0.1436307 0.1443568 0.1451849 0.1455157 0.1452821 0.1445717 0.1439195 0.1435867 0.1436018 0.1438781 0.1442086 0.1448844 0.1454756 0.145663 0.146268 0.1467386 0.1472724 0.147664 0.1480913 0.1483739 0.1488841 0.1493636 0.1497088 0.1500379 0.1502916 0.1505389 0.1506787 0.1507102 0.1505992 0.1505445 0.1505938 0.1508133 0.1509569 0.1512396 0.1514625 0.1516195 0.1516156 0.1515561 0.1514966 0.1513976 0.1512612 0.151076 0.1510596 0.1510431 0.151077 0.1511168 0.1511917 0.151023 0.1508045 0.1505885 0.1503493 0.1502373 0.1501726 0.1500762 0.1500065 0.1499782 0.150057 0.1502658 0.150469 0.1505335 0.1505505 0.1505328 0.1504275 0.1502438 0.1499674 0.1497118 0.1494661 0.1493102 0.1493681 0.1495501 0.1499738 0.1509654 0.155775 0.154484 0.1527379 0.1518718 0.1506028 0.1489256 0.147067 0.1447061 0.1436307 0.1443568 0.1451849 0.1455157 0.1452821 0.1445717 0.1439195 0.1435867 0.1436018 0.1438781 0.1442086 0.1448844 0.1454756 0.145663 0.146268 0.1467386 0.1472724 0.147664 0.1480913 0.1483739 0.1488841 0.1493636 0.1497088 0.1500379 0.1502916 0.1505389 0.1506787 0.1507102 0.1505992 0.1505445 0.1505938 0.1508133 0.1509569 0.1512396 0.1514625 0.1516195 0.1516156 0.1515561 0.1514966 0.1513976 0.1512612 0.151076 0.1510596 0.1510431 0.151077 0.1511168 0.1511917 0.151023 0.1508045 0.1505885 0.1503493 0.1502373 0.1501726 0.1500762 0.1500065 0.1499782 0.150057 0.1502658 0.150469 0.1505335 0.1505505 0.1505328 0.1504275 0.1502438 0.1499674 0.1497118 0.1494661 0.1493102 0.1493681 0.1495501 0.1499738 0.1509654 0.155775 0.154484 0.1527379 0.1518718 0.1506028 0.1489256 0.147067 0.1447061 0.1436307 0.1443568 0.1451849 0.1455157 0.1452821 0.1445717 0.1439195 0.1435867 0.1436018 0.1438781 0.1442086 0.1448844 0.1454756 0.145663 0.146268 0.1467386 0.1472724 0.147664 0.1480913 0.1483739 0.1488841 0.1493636 0.1497088 0.1500379 0.1502916 0.1505389 0.1506787 0.1507102 0.1505992 0.1505445 0.1505938 0.1508133 0.1509569 0.1512396 0.1514625 0.1516195 0.1516156 0.1515561 0.1514966 0.1513976 0.1512612 0.151076 0.1510596 0.1510431 0.151077 0.1511168 0.1511917 0.151023 0.1508045 0.1505885 0.1503493 0.1502373 0.1501726 0.1500762 0.1500065 0.1499782 0.150057 0.1502658 0.150469 0.1505335 0.1505505 0.1505328 0.1504275 0.1502438 0.1499674 0.1497118 0.1494661 0.1493102 0.1493681 0.1495501 0.1499738 0.1509654 0.155775 0.154484 0.1527379 0.1518718 0.1506028 0.1489256 0.147067 0.1447061 0.1436307 0.1443568 0.1451849 0.1455157 0.1452821 0.1445717 0.1439195 0.1435867 0.1436018 0.1438781 0.1442086 0.1448844 0.1454756 0.145663 0.146268 0.1467386 0.1472724 0.147664 0.1480913 0.1483739 0.1488841 0.1493636 0.1497088 0.1500379 0.1502916 0.1505389 0.1506787 0.1507102 0.1505992 0.1505445 0.1505938 0.1508133 0.1509569 0.1512396 0.1514625 0.1516195 0.1516156 0.1515561 0.1514966 0.1513976 0.1512612 0.151076 0.1510596 0.1510431 0.151077 0.1511168 0.1511917 0.151023 0.1508045 0.1505885 0.1503493 0.1502373 0.1501726 0.1500762 0.1500065 0.1499782 0.150057 0.1502658 0.150469 0.1505335 0.1505505 0.1505328 0.1504275 0.1502438 0.1499674 0.1497118 0.1494661 0.1493102 0.1493681 0.1495501 0.1499738 0.1509654 0.155775 0.154484 0.1527379 0.1518718 0.1506028 0.1489256 0.147067 0.1447061 0.1436307 0.1443568 0.1451849 0.1455157 0.1452821 0.1445717 0.1439195 0.1435867 0.1436018 0.1438781 0.1442086 0.1448844 0.1454756 0.145663 0.146268 0.1467386 0.1472724 0.147664 0.1480913 0.1483739 0.1488841 0.1493636 0.1497088 0.1500379 0.1502916 0.1505389 0.1506787 0.1507102 0.1505992 0.1505445 0.1505938 0.1508133 0.1509569 0.1512396 0.1514625 0.1516195 0.1516156 0.1515561 0.1514966 0.1513976 0.1512612 0.151076 0.1510596 0.1510431 0.151077 0.1511168 0.1511917 0.151023 0.1508045 0.1505885 0.1503493 0.1502373 0.1501726 0.1500762 0.1500065 0.1499782 0.150057 0.1502658 0.150469 0.1505335 0.1505505 0.1505328 0.1504275 0.1502438 0.1499674 0.1497118 0.1494661 0.1493102 0.1493681 0.1495501 0.1499738 0.1509654 0.155775 0.154484 0.1527379 0.1518718 0.1506028 0.1489256 0.147067 0.1447061 0.1436307 0.1443568 0.1451849 0.1455157 0.1452821 0.1445717 0.1439195 0.1435867 0.1436018 0.1438781 0.1442086 0.1448844 0.1454756 0.145663 0.146268 0.1467386 0.1472724 0.147664 0.1480913 0.1483739 0.1488841 0.1493636 0.1497088 0.1500379 0.1502916 0.1505389 0.1506787 0.1507102 0.1505992 0.1505445 0.1505938 0.1508133 0.1509569 0.1512396 0.1514625 0.1516195 0.1516156 0.1515561 0.1514966 0.1513976 0.1512612 0.151076 0.1510596 0.1510431 0.151077 0.1511168 0.1511917 0.151023 0.1508045 0.1505885 0.1503493 0.1502373 0.1501726 0.1500762 0.1500065 0.1499782 0.150057 0.1502658 0.150469 0.1505335 0.1505505 0.1505328 0.1504275 0.1502438 0.1499674 0.1497118 0.1494661 0.1493102 0.1493681 0.1495501 0.1499738 0.1509654 0.155775 0.154484 0.1527379 0.1518718 0.1506028 0.1489256 0.147067 0.1447061 0.1436307 0.1443568 0.1451849 0.1455157 0.1452821 0.1445717 0.1439195 0.1435867 0.1436018 0.1438781 0.1442086 0.1448844 0.1454756 0.145663 0.146268 0.1467386 0.1472724 0.147664 0.1480913 0.1483739 0.1488841 0.1493636 0.1497088 0.1500379 0.1502916 0.1505389 0.1506787 0.1507102 0.1505992 0.1505445 0.1505938 0.1508133 0.1509569 0.1512396 0.1514625 0.1516195 0.1516156 0.1515561 0.1514966 0.1513976 0.1512612 0.151076 0.1510596 0.1510431 0.151077 0.1511168 0.1511917 0.151023 0.1508045 0.1505885 0.1503493 0.1502373 0.1501726 0.1500762 0.1500065 0.1499782 0.150057 0.1502658 0.150469 0.1505335 0.1505505 0.1505328 0.1504275 0.1502438 0.1499674 0.1497118 0.1494661 0.1493102 0.1493681 0.1495501 0.1499738 0.1509654 ]
</Nnet> 
